<?xml version="1.0"?>
<opencv_storage>
<cascade>
  <stageType>BOOST</stageType>
  <featureType>HAAR</featureType>
  <height>36</height>
  <width>64</width>
  <stageParams>
    <boostType>GAB</boostType>
    <minHitRate>9.9500000476837158e-01</minHitRate>
    <maxFalseAlarm>5.0000000000000000e-01</maxFalseAlarm>
    <weightTrimRate>9.4999999999999996e-01</weightTrimRate>
    <maxDepth>1</maxDepth>
    <maxWeakCount>100</maxWeakCount></stageParams>
  <featureParams>
    <maxCatCount>0</maxCatCount>
    <featSize>1</featSize>
    <mode>ALL</mode></featureParams>
  <stageNum>14</stageNum>
  <stages>
    <!-- stage 0 -->
    <_>
      <maxWeakCount>3</maxWeakCount>
      <stageThreshold>-1.3209235668182373e+00</stageThreshold>
      <weakClassifiers>
        <_>
          <internalNodes>
            0 -1 31 -5.5907386541366577e-01</internalNodes>
          <leafValues>
            9.4059407711029053e-01 -9.3880391120910645e-01</leafValues></_>
        <_>
          <internalNodes>
            0 -1 32 -1.5073394775390625e-01</internalNodes>
          <leafValues>
            6.1875921487808228e-01 -8.8281267881393433e-01</leafValues></_>
        <_>
          <internalNodes>
            0 -1 7 -2.9265135526657104e-02</internalNodes>
          <leafValues>
            5.0069308280944824e-01 -9.1061693429946899e-01</leafValues></_></weakClassifiers></_>
    <!-- stage 1 -->
    <_>
      <maxWeakCount>3</maxWeakCount>
      <stageThreshold>-1.3202689886093140e+00</stageThreshold>
      <weakClassifiers>
        <_>
          <internalNodes>
            0 -1 22 -9.6669661998748779e-01</internalNodes>
          <leafValues>
            6.3043481111526489e-01 -8.7637364864349365e-01</leafValues></_>
        <_>
          <internalNodes>
            0 -1 27 -1.7739507555961609e-01</internalNodes>
          <leafValues>
            3.7432467937469482e-01 -7.9243475198745728e-01</leafValues></_>
        <_>
          <internalNodes>
            0 -1 17 -5.3985189879313111e-05</internalNodes>
          <leafValues>
            3.4853932261466980e-01 -7.5154072046279907e-01</leafValues></_></weakClassifiers></_>
    <!-- stage 2 -->
    <_>
      <maxWeakCount>3</maxWeakCount>
      <stageThreshold>-1.2567404508590698e+00</stageThreshold>
      <weakClassifiers>
        <_>
          <internalNodes>
            0 -1 30 -1.0182204246520996e+00</internalNodes>
          <leafValues>
            6.3043481111526489e-01 -8.7637364864349365e-01</leafValues></_>
        <_>
          <internalNodes>
            0 -1 41 -1.0012847185134888e-01</internalNodes>
          <leafValues>
            1.6974888741970062e-01 -8.4067690372467041e-01</leafValues></_>
        <_>
          <internalNodes>
            0 -1 6 -1.5756916999816895e-01</internalNodes>
          <leafValues>
            5.8287036418914795e-01 -5.5011564493179321e-01</leafValues></_></weakClassifiers></_>
    <!-- stage 3 -->
    <_>
      <maxWeakCount>4</maxWeakCount>
      <stageThreshold>-9.3115437030792236e-01</stageThreshold>
      <weakClassifiers>
        <_>
          <internalNodes>
            0 -1 12 -1.1046380996704102e+00</internalNodes>
          <leafValues>
            7.4647885560989380e-01 -8.4512680768966675e-01</leafValues></_>
        <_>
          <internalNodes>
            0 -1 39 -1.3781481981277466e-01</internalNodes>
          <leafValues>
            5.0445008277893066e-01 -6.1845970153808594e-01</leafValues></_>
        <_>
          <internalNodes>
            0 -1 66 1.1719343092408963e-05</internalNodes>
          <leafValues>
            -8.0919837951660156e-01 2.8784319758415222e-01</leafValues></_>
        <_>
          <internalNodes>
            0 -1 55 -5.3330985829234123e-03</internalNodes>
          <leafValues>
            2.4458897113800049e-01 -8.6693292856216431e-01</leafValues></_></weakClassifiers></_>
    <!-- stage 4 -->
    <_>
      <maxWeakCount>5</maxWeakCount>
      <stageThreshold>-1.2036675214767456e+00</stageThreshold>
      <weakClassifiers>
        <_>
          <internalNodes>
            0 -1 21 -1.2621561288833618e+00</internalNodes>
          <leafValues>
            7.0833331346511841e-01 -7.9533678293228149e-01</leafValues></_>
        <_>
          <internalNodes>
            0 -1 36 -1.2001915602013469e-03</internalNodes>
          <leafValues>
            -8.2021594047546387e-01 9.9549435079097748e-02</leafValues></_>
        <_>
          <internalNodes>
            0 -1 10 -2.3969901667442173e-04</internalNodes>
          <leafValues>
            -9.3066853284835815e-01 2.1006923913955688e-01</leafValues></_>
        <_>
          <internalNodes>
            0 -1 11 8.2821463001891971e-04</internalNodes>
          <leafValues>
            2.6358237862586975e-01 -9.0114629268646240e-01</leafValues></_>
        <_>
          <internalNodes>
            0 -1 15 -1.0362783214077353e-03</internalNodes>
          <leafValues>
            -1. 1.8319688737392426e-01</leafValues></_></weakClassifiers></_>
    <!-- stage 5 -->
    <_>
      <maxWeakCount>6</maxWeakCount>
      <stageThreshold>-1.5650767087936401e+00</stageThreshold>
      <weakClassifiers>
        <_>
          <internalNodes>
            0 -1 52 1.9729742780327797e-03</internalNodes>
          <leafValues>
            -7.9602646827697754e-01 3.2307693362236023e-01</leafValues></_>
        <_>
          <internalNodes>
            0 -1 18 2.0519766258075833e-04</internalNodes>
          <leafValues>
            1.6118176281452179e-02 -9.8982262611389160e-01</leafValues></_>
        <_>
          <internalNodes>
            0 -1 63 8.2368591392878443e-05</internalNodes>
          <leafValues>
            1.7390324175357819e-01 -9.0331780910491943e-01</leafValues></_>
        <_>
          <internalNodes>
            0 -1 35 5.0623157221707515e-06</internalNodes>
          <leafValues>
            -7.6433306932449341e-01 2.5152391195297241e-01</leafValues></_>
        <_>
          <internalNodes>
            0 -1 5 9.5744304417166859e-05</internalNodes>
          <leafValues>
            -6.2557554244995117e-01 3.4348598122596741e-01</leafValues></_>
        <_>
          <internalNodes>
            0 -1 47 3.0067421495914459e-02</internalNodes>
          <leafValues>
            -5.3414040803909302e-01 4.3083703517913818e-01</leafValues></_></weakClassifiers></_>
    <!-- stage 6 -->
    <_>
      <maxWeakCount>5</maxWeakCount>
      <stageThreshold>-1.2110060453414917e+00</stageThreshold>
      <weakClassifiers>
        <_>
          <internalNodes>
            0 -1 46 5.3120276425033808e-04</internalNodes>
          <leafValues>
            -7.6815289258956909e-01 6.5714287757873535e-01</leafValues></_>
        <_>
          <internalNodes>
            0 -1 16 2.2415694547817111e-04</internalNodes>
          <leafValues>
            6.1694789677858353e-02 -9.5822876691818237e-01</leafValues></_>
        <_>
          <internalNodes>
            0 -1 19 -2.3204516037367284e-04</internalNodes>
          <leafValues>
            -9.2979210615158081e-01 2.0980057120323181e-01</leafValues></_>
        <_>
          <internalNodes>
            0 -1 3 -7.4119372584391385e-05</internalNodes>
          <leafValues>
            -8.4960007667541504e-01 2.2389359772205353e-01</leafValues></_>
        <_>
          <internalNodes>
            0 -1 61 5.2907242206856608e-05</internalNodes>
          <leafValues>
            2.0135059952735901e-01 -1.</leafValues></_></weakClassifiers></_>
    <!-- stage 7 -->
    <_>
      <maxWeakCount>5</maxWeakCount>
      <stageThreshold>-1.4853193759918213e+00</stageThreshold>
      <weakClassifiers>
        <_>
          <internalNodes>
            0 -1 50 -5.7666893117129803e-03</internalNodes>
          <leafValues>
            4.0000000596046448e-01 -7.7922075986862183e-01</leafValues></_>
        <_>
          <internalNodes>
            0 -1 28 6.4181595007539727e-06</internalNodes>
          <leafValues>
            -7.7468198537826538e-01 1.0725838690996170e-01</leafValues></_>
        <_>
          <internalNodes>
            0 -1 53 4.7046891995705664e-04</internalNodes>
          <leafValues>
            -4.0093740820884705e-01 5.4010987281799316e-01</leafValues></_>
        <_>
          <internalNodes>
            0 -1 33 1.3849200331605971e-04</internalNodes>
          <leafValues>
            2.5555443763732910e-01 -8.9730161428451538e-01</leafValues></_>
        <_>
          <internalNodes>
            0 -1 64 -3.4523505019024014e-04</internalNodes>
          <leafValues>
            -8.8955879211425781e-01 2.1396636962890625e-01</leafValues></_></weakClassifiers></_>
    <!-- stage 8 -->
    <_>
      <maxWeakCount>5</maxWeakCount>
      <stageThreshold>-1.2599225044250488e+00</stageThreshold>
      <weakClassifiers>
        <_>
          <internalNodes>
            0 -1 0 -1.3991987705230713e+00</internalNodes>
          <leafValues>
            3.8461539149284363e-01 -7.8125000000000000e-01</leafValues></_>
        <_>
          <internalNodes>
            0 -1 13 -1.0146950080525130e-04</internalNodes>
          <leafValues>
            2.2704409062862396e-01 -6.8748319149017334e-01</leafValues></_>
        <_>
          <internalNodes>
            0 -1 58 1.4767085667699575e-04</internalNodes>
          <leafValues>
            -3.3301883935928345e-01 7.6129013299942017e-01</leafValues></_>
        <_>
          <internalNodes>
            0 -1 4 3.0257937032729387e-04</internalNodes>
          <leafValues>
            -6.2306159734725952e-01 3.5952076315879822e-01</leafValues></_>
        <_>
          <internalNodes>
            0 -1 2 -5.5916458368301392e-02</internalNodes>
          <leafValues>
            3.0241227149963379e-01 -7.3221850395202637e-01</leafValues></_></weakClassifiers></_>
    <!-- stage 9 -->
    <_>
      <maxWeakCount>6</maxWeakCount>
      <stageThreshold>-1.5226674079895020e+00</stageThreshold>
      <weakClassifiers>
        <_>
          <internalNodes>
            0 -1 49 -1.5485627809539437e-03</internalNodes>
          <leafValues>
            2.9629629850387573e-01 -7.7806788682937622e-01</leafValues></_>
        <_>
          <internalNodes>
            0 -1 34 -6.6423117459635250e-06</internalNodes>
          <leafValues>
            9.8665960133075714e-02 -7.3761594295501709e-01</leafValues></_>
        <_>
          <internalNodes>
            0 -1 69 -7.3764622356975451e-06</internalNodes>
          <leafValues>
            3.0809873342514038e-01 -5.4018062353134155e-01</leafValues></_>
        <_>
          <internalNodes>
            0 -1 65 1.0889482218772173e-03</internalNodes>
          <leafValues>
            1.8569764494895935e-01 -9.1631346940994263e-01</leafValues></_>
        <_>
          <internalNodes>
            0 -1 56 4.5302044600248337e-04</internalNodes>
          <leafValues>
            -3.2624271512031555e-01 5.6488156318664551e-01</leafValues></_>
        <_>
          <internalNodes>
            0 -1 24 6.4493287936784327e-05</internalNodes>
          <leafValues>
            2.4374863505363464e-01 -7.9993230104446411e-01</leafValues></_></weakClassifiers></_>
    <!-- stage 10 -->
    <_>
      <maxWeakCount>6</maxWeakCount>
      <stageThreshold>-1.6862242221832275e+00</stageThreshold>
      <weakClassifiers>
        <_>
          <internalNodes>
            0 -1 59 2.2729979828000069e-03</internalNodes>
          <leafValues>
            -7.6010102033615112e-01 7.8571426868438721e-01</leafValues></_>
        <_>
          <internalNodes>
            0 -1 44 -8.9134363224729896e-04</internalNodes>
          <leafValues>
            5.7745134830474854e-01 -4.4937920570373535e-01</leafValues></_>
        <_>
          <internalNodes>
            0 -1 14 7.9615262802690268e-04</internalNodes>
          <leafValues>
            2.1618400514125824e-01 -8.9912813901901245e-01</leafValues></_>
        <_>
          <internalNodes>
            0 -1 25 -8.2856304288725369e-06</internalNodes>
          <leafValues>
            2.2775052487850189e-01 -6.9604974985122681e-01</leafValues></_>
        <_>
          <internalNodes>
            0 -1 57 -9.3470944557338953e-04</internalNodes>
          <leafValues>
            6.4442479610443115e-01 -2.9735326766967773e-01</leafValues></_>
        <_>
          <internalNodes>
            0 -1 51 3.7631209124810994e-04</internalNodes>
          <leafValues>
            3.0047497153282166e-01 -8.6826324462890625e-01</leafValues></_></weakClassifiers></_>
    <!-- stage 11 -->
    <_>
      <maxWeakCount>6</maxWeakCount>
      <stageThreshold>-1.7091052532196045e+00</stageThreshold>
      <weakClassifiers>
        <_>
          <internalNodes>
            0 -1 43 2.6620477437973022e-03</internalNodes>
          <leafValues>
            -7.5857686996459961e-01 5.1515150070190430e-01</leafValues></_>
        <_>
          <internalNodes>
            0 -1 60 1.5737169887870550e-03</internalNodes>
          <leafValues>
            -4.2038512229919434e-01 5.2502882480621338e-01</leafValues></_>
        <_>
          <internalNodes>
            0 -1 40 -6.8017093326488975e-06</internalNodes>
          <leafValues>
            3.1196260452270508e-01 -5.6343811750411987e-01</leafValues></_>
        <_>
          <internalNodes>
            0 -1 67 3.3122365130111575e-04</internalNodes>
          <leafValues>
            1.9642685353755951e-01 -8.5328167676925659e-01</leafValues></_>
        <_>
          <internalNodes>
            0 -1 29 -5.0093003665097058e-05</internalNodes>
          <leafValues>
            2.9438436031341553e-01 -6.5123766660690308e-01</leafValues></_>
        <_>
          <internalNodes>
            0 -1 8 -2.9860461130738258e-02</internalNodes>
          <leafValues>
            3.7030717730522156e-01 -4.5751628279685974e-01</leafValues></_></weakClassifiers></_>
    <!-- stage 12 -->
    <_>
      <maxWeakCount>7</maxWeakCount>
      <stageThreshold>-1.3662286996841431e+00</stageThreshold>
      <weakClassifiers>
        <_>
          <internalNodes>
            0 -1 54 2.2227703593671322e-03</internalNodes>
          <leafValues>
            -7.5696200132369995e-01 6.0000002384185791e-01</leafValues></_>
        <_>
          <internalNodes>
            0 -1 45 1.1041988618671894e-03</internalNodes>
          <leafValues>
            -4.2581745982170105e-01 5.1746273040771484e-01</leafValues></_>
        <_>
          <internalNodes>
            0 -1 62 1.3920845231041312e-04</internalNodes>
          <leafValues>
            -6.5650147199630737e-01 2.9611566662788391e-01</leafValues></_>
        <_>
          <internalNodes>
            0 -1 9 2.8299968107603490e-04</internalNodes>
          <leafValues>
            -7.0137798786163330e-01 2.1748939156532288e-01</leafValues></_>
        <_>
          <internalNodes>
            0 -1 23 8.7655662355246022e-06</internalNodes>
          <leafValues>
            -5.6466078758239746e-01 2.6972711086273193e-01</leafValues></_>
        <_>
          <internalNodes>
            0 -1 42 1.1287818197160959e-03</internalNodes>
          <leafValues>
            -1.9782370328903198e-01 8.6722034215927124e-01</leafValues></_>
        <_>
          <internalNodes>
            0 -1 37 6.8649853346869349e-04</internalNodes>
          <leafValues>
            2.6486149430274963e-01 -7.5962066650390625e-01</leafValues></_></weakClassifiers></_>
    <!-- stage 13 -->
    <_>
      <maxWeakCount>7</maxWeakCount>
      <stageThreshold>-1.5328395366668701e+00</stageThreshold>
      <weakClassifiers>
        <_>
          <internalNodes>
            0 -1 48 8.8209309615194798e-04</internalNodes>
          <leafValues>
            -7.5094342231750488e-01 6.8000000715255737e-01</leafValues></_>
        <_>
          <internalNodes>
            0 -1 38 1.7718566814437509e-03</internalNodes>
          <leafValues>
            -7.1851501706987619e-04 -8.3891457319259644e-01</leafValues></_>
        <_>
          <internalNodes>
            0 -1 70 -9.3252074293559417e-06</internalNodes>
          <leafValues>
            2.4383164942264557e-01 -5.7541441917419434e-01</leafValues></_>
        <_>
          <internalNodes>
            0 -1 20 3.1810704967938364e-06</internalNodes>
          <leafValues>
            -4.6929022669792175e-01 3.9524775743484497e-01</leafValues></_>
        <_>
          <internalNodes>
            0 -1 26 -1.0906439274549484e-04</internalNodes>
          <leafValues>
            -8.1972914934158325e-01 1.9574379920959473e-01</leafValues></_>
        <_>
          <internalNodes>
            0 -1 68 4.0322361201106105e-06</internalNodes>
          <leafValues>
            -6.8732208013534546e-01 2.0108129084110260e-01</leafValues></_>
        <_>
          <internalNodes>
            0 -1 1 4.7468094271607697e-04</internalNodes>
          <leafValues>
            1.7870146036148071e-01 -8.0160927772521973e-01</leafValues></_></weakClassifiers></_></stages>
  <features>
    <_>
      <rects>
        <_>
          0 1 63 33 -1.</_>
        <_>
          21 12 21 11 9.</_></rects>
      <tilted>0</tilted></_>
    <_>
      <rects>
        <_>
          0 2 20 1 -1.</_>
        <_>
          5 2 10 1 2.</_></rects>
      <tilted>0</tilted></_>
    <_>
      <rects>
        <_>
          0 3 64 32 -1.</_>
        <_>
          0 11 64 16 2.</_></rects>
      <tilted>0</tilted></_>
    <_>
      <rects>
        <_>
          0 5 2 27 -1.</_>
        <_>
          1 5 1 27 2.</_></rects>
      <tilted>0</tilted></_>
    <_>
      <rects>
        <_>
          0 5 2 27 -1.</_>
        <_>
          0 14 2 9 3.</_></rects>
      <tilted>0</tilted></_>
    <_>
      <rects>
        <_>
          0 7 1 24 -1.</_>
        <_>
          0 13 1 12 2.</_></rects>
      <tilted>0</tilted></_>
    <_>
      <rects>
        <_>
          0 19 46 12 -1.</_>
        <_>
          23 19 23 12 2.</_></rects>
      <tilted>0</tilted></_>
    <_>
      <rects>
        <_>
          0 20 44 4 -1.</_>
        <_>
          22 20 22 4 2.</_></rects>
      <tilted>0</tilted></_>
    <_>
      <rects>
        <_>
          0 22 60 2 -1.</_>
        <_>
          15 22 30 2 2.</_></rects>
      <tilted>0</tilted></_>
    <_>
      <rects>
        <_>
          0 28 31 8 -1.</_>
        <_>
          0 30 31 4 2.</_></rects>
      <tilted>0</tilted></_>
    <_>
      <rects>
        <_>
          0 29 12 7 -1.</_>
        <_>
          3 29 6 7 2.</_></rects>
      <tilted>0</tilted></_>
    <_>
      <rects>
        <_>
          0 31 12 3 -1.</_>
        <_>
          4 31 4 3 3.</_></rects>
      <tilted>0</tilted></_>
    <_>
      <rects>
        <_>
          1 3 63 33 -1.</_>
        <_>
          22 14 21 11 9.</_></rects>
      <tilted>0</tilted></_>
    <_>
      <rects>
        <_>
          1 29 3 6 -1.</_>
        <_>
          1 32 3 3 2.</_></rects>
      <tilted>0</tilted></_>
    <_>
      <rects>
        <_>
          1 30 6 6 -1.</_>
        <_>
          3 32 2 2 9.</_></rects>
      <tilted>0</tilted></_>
    <_>
      <rects>
        <_>
          1 30 9 6 -1.</_>
        <_>
          4 32 3 2 9.</_></rects>
      <tilted>0</tilted></_>
    <_>
      <rects>
        <_>
          1 33 12 1 -1.</_>
        <_>
          5 33 4 1 3.</_></rects>
      <tilted>0</tilted></_>
    <_>
      <rects>
        <_>
          2 0 4 1 -1.</_>
        <_>
          2 0 2 1 2.</_></rects>
      <tilted>1</tilted></_>
    <_>
      <rects>
        <_>
          2 33 8 2 -1.</_>
        <_>
          4 33 4 2 2.</_></rects>
      <tilted>0</tilted></_>
    <_>
      <rects>
        <_>
          2 33 9 3 -1.</_>
        <_>
          5 34 3 1 9.</_></rects>
      <tilted>0</tilted></_>
    <_>
      <rects>
        <_>
          3 0 2 1 -1.</_>
        <_>
          4 0 1 1 2.</_></rects>
      <tilted>0</tilted></_>
    <_>
      <rects>
        <_>
          3 0 60 33 -1.</_>
        <_>
          23 11 20 11 9.</_></rects>
      <tilted>0</tilted></_>
    <_>
      <rects>
        <_>
          3 2 60 33 -1.</_>
        <_>
          23 13 20 11 9.</_></rects>
      <tilted>0</tilted></_>
    <_>
      <rects>
        <_>
          3 8 4 26 -1.</_>
        <_>
          4 8 2 26 2.</_></rects>
      <tilted>0</tilted></_>
    <_>
      <rects>
        <_>
          3 16 3 4 -1.</_>
        <_>
          3 17 3 2 2.</_></rects>
      <tilted>0</tilted></_>
    <_>
      <rects>
        <_>
          4 0 2 1 -1.</_>
        <_>
          4 0 1 1 2.</_></rects>
      <tilted>1</tilted></_>
    <_>
      <rects>
        <_>
          4 3 8 4 -1.</_>
        <_>
          6 3 4 4 2.</_></rects>
      <tilted>0</tilted></_>
    <_>
      <rects>
        <_>
          4 12 60 15 -1.</_>
        <_>
          19 12 30 15 2.</_></rects>
      <tilted>0</tilted></_>
    <_>
      <rects>
        <_>
          4 28 2 4 -1.</_>
        <_>
          4 28 2 2 2.</_></rects>
      <tilted>1</tilted></_>
    <_>
      <rects>
        <_>
          4 34 15 2 -1.</_>
        <_>
          4 35 15 1 2.</_></rects>
      <tilted>0</tilted></_>
    <_>
      <rects>
        <_>
          7 0 57 36 -1.</_>
        <_>
          26 12 19 12 9.</_></rects>
      <tilted>0</tilted></_>
    <_>
      <rects>
        <_>
          8 5 54 30 -1.</_>
        <_>
          26 15 18 10 9.</_></rects>
      <tilted>0</tilted></_>
    <_>
      <rects>
        <_>
          8 9 56 17 -1.</_>
        <_>
          22 9 28 17 2.</_></rects>
      <tilted>0</tilted></_>
    <_>
      <rects>
        <_>
          8 30 6 4 -1.</_>
        <_>
          10 30 2 4 3.</_></rects>
      <tilted>0</tilted></_>
    <_>
      <rects>
        <_>
          12 0 2 1 -1.</_>
        <_>
          12 0 1 1 2.</_></rects>
      <tilted>1</tilted></_>
    <_>
      <rects>
        <_>
          12 25 2 9 -1.</_>
        <_>
          9 28 2 3 3.</_></rects>
      <tilted>1</tilted></_>
    <_>
      <rects>
        <_>
          13 0 45 1 -1.</_>
        <_>
          28 0 15 1 3.</_></rects>
      <tilted>0</tilted></_>
    <_>
      <rects>
        <_>
          14 0 18 2 -1.</_>
        <_>
          20 0 6 2 3.</_></rects>
      <tilted>0</tilted></_>
    <_>
      <rects>
        <_>
          14 24 9 3 -1.</_>
        <_>
          17 27 3 3 3.</_></rects>
      <tilted>1</tilted></_>
    <_>
      <rects>
        <_>
          18 6 42 12 -1.</_>
        <_>
          32 10 14 4 9.</_></rects>
      <tilted>0</tilted></_>
    <_>
      <rects>
        <_>
          20 0 2 1 -1.</_>
        <_>
          20 0 1 1 2.</_></rects>
      <tilted>1</tilted></_>
    <_>
      <rects>
        <_>
          20 0 30 36 -1.</_>
        <_>
          20 9 30 18 2.</_></rects>
      <tilted>0</tilted></_>
    <_>
      <rects>
        <_>
          20 13 14 2 -1.</_>
        <_>
          20 13 7 1 2.</_>
        <_>
          27 14 7 1 2.</_></rects>
      <tilted>0</tilted></_>
    <_>
      <rects>
        <_>
          23 10 16 2 -1.</_>
        <_>
          23 10 8 1 2.</_>
        <_>
          31 11 8 1 2.</_></rects>
      <tilted>0</tilted></_>
    <_>
      <rects>
        <_>
          24 20 3 3 -1.</_>
        <_>
          25 21 1 1 9.</_></rects>
      <tilted>0</tilted></_>
    <_>
      <rects>
        <_>
          26 20 21 3 -1.</_>
        <_>
          26 21 21 1 3.</_></rects>
      <tilted>0</tilted></_>
    <_>
      <rects>
        <_>
          27 18 1 3 -1.</_>
        <_>
          27 19 1 1 3.</_></rects>
      <tilted>0</tilted></_>
    <_>
      <rects>
        <_>
          29 1 30 16 -1.</_>
        <_>
          29 1 15 8 2.</_>
        <_>
          44 9 15 8 2.</_></rects>
      <tilted>0</tilted></_>
    <_>
      <rects>
        <_>
          29 14 2 2 -1.</_>
        <_>
          29 15 2 1 2.</_></rects>
      <tilted>0</tilted></_>
    <_>
      <rects>
        <_>
          29 15 3 3 -1.</_>
        <_>
          30 16 1 1 9.</_></rects>
      <tilted>0</tilted></_>
    <_>
      <rects>
        <_>
          30 6 8 6 -1.</_>
        <_>
          30 8 8 2 3.</_></rects>
      <tilted>0</tilted></_>
    <_>
      <rects>
        <_>
          31 35 18 1 -1.</_>
        <_>
          37 35 6 1 3.</_></rects>
      <tilted>0</tilted></_>
    <_>
      <rects>
        <_>
          32 3 3 22 -1.</_>
        <_>
          33 3 1 22 3.</_></rects>
      <tilted>0</tilted></_>
    <_>
      <rects>
        <_>
          32 11 2 15 -1.</_>
        <_>
          33 11 1 15 2.</_></rects>
      <tilted>0</tilted></_>
    <_>
      <rects>
        <_>
          33 8 3 3 -1.</_>
        <_>
          34 9 1 1 9.</_></rects>
      <tilted>0</tilted></_>
    <_>
      <rects>
        <_>
          34 22 30 12 -1.</_>
        <_>
          34 22 15 6 2.</_>
        <_>
          49 28 15 6 2.</_></rects>
      <tilted>0</tilted></_>
    <_>
      <rects>
        <_>
          36 12 3 18 -1.</_>
        <_>
          37 12 1 18 3.</_></rects>
      <tilted>0</tilted></_>
    <_>
      <rects>
        <_>
          37 7 3 3 -1.</_>
        <_>
          36 8 3 1 3.</_></rects>
      <tilted>1</tilted></_>
    <_>
      <rects>
        <_>
          38 22 2 2 -1.</_>
        <_>
          38 22 1 1 2.</_>
        <_>
          39 23 1 1 2.</_></rects>
      <tilted>0</tilted></_>
    <_>
      <rects>
        <_>
          39 17 3 3 -1.</_>
        <_>
          40 18 1 1 9.</_></rects>
      <tilted>0</tilted></_>
    <_>
      <rects>
        <_>
          42 9 3 17 -1.</_>
        <_>
          43 10 1 17 3.</_></rects>
      <tilted>1</tilted></_>
    <_>
      <rects>
        <_>
          42 32 4 2 -1.</_>
        <_>
          42 32 2 1 2.</_>
        <_>
          44 33 2 1 2.</_></rects>
      <tilted>0</tilted></_>
    <_>
      <rects>
        <_>
          44 0 18 6 -1.</_>
        <_>
          44 2 18 2 3.</_></rects>
      <tilted>0</tilted></_>
    <_>
      <rects>
        <_>
          49 0 4 4 -1.</_>
        <_>
          50 0 2 4 2.</_></rects>
      <tilted>0</tilted></_>
    <_>
      <rects>
        <_>
          52 22 12 12 -1.</_>
        <_>
          55 22 6 12 2.</_></rects>
      <tilted>0</tilted></_>
    <_>
      <rects>
        <_>
          52 30 12 5 -1.</_>
        <_>
          55 30 6 5 2.</_></rects>
      <tilted>0</tilted></_>
    <_>
      <rects>
        <_>
          55 0 1 8 -1.</_>
        <_>
          53 2 1 4 2.</_></rects>
      <tilted>1</tilted></_>
    <_>
      <rects>
        <_>
          55 21 8 4 -1.</_>
        <_>
          54 22 8 2 2.</_></rects>
      <tilted>1</tilted></_>
    <_>
      <rects>
        <_>
          58 22 6 9 -1.</_>
        <_>
          60 22 2 9 3.</_></rects>
      <tilted>0</tilted></_>
    <_>
      <rects>
        <_>
          61 33 1 2 -1.</_>
        <_>
          61 34 1 1 2.</_></rects>
      <tilted>0</tilted></_>
    <_>
      <rects>
        <_>
          62 0 1 2 -1.</_>
        <_>
          62 0 1 1 2.</_></rects>
      <tilted>1</tilted></_></features></cascade>
</opencv_storage>
