<?xml version="1.0"?>
<opencv_storage>
<stage6>
  <maxWeakCount>5</maxWeakCount>
  <stageThreshold>-1.2110060453414917e+00</stageThreshold>
  <weakClassifiers>
    <_>
      <internalNodes>
        0 -1 2566291 5.3120276425033808e-04</internalNodes>
      <leafValues>
        -7.6815289258956909e-01 6.5714287757873535e-01</leafValues></_>
    <_>
      <internalNodes>
        0 -1 207072 2.2415694547817111e-04</internalNodes>
      <leafValues>
        6.1694789677858353e-02 -9.5822876691818237e-01</leafValues></_>
    <_>
      <internalNodes>
        0 -1 309722 -2.3204516037367284e-04</internalNodes>
      <leafValues>
        -9.2979210615158081e-01 2.0980057120323181e-01</leafValues></_>
    <_>
      <internalNodes>
        0 -1 27228 -7.4119372584391385e-05</internalNodes>
      <leafValues>
        -8.4960007667541504e-01 2.2389359772205353e-01</leafValues></_>
    <_>
      <internalNodes>
        0 -1 3514809 5.2907242206856608e-05</internalNodes>
      <leafValues>
        2.0135059952735901e-01 -1.</leafValues></_></weakClassifiers></stage6>
</opencv_storage>
