<?xml version="1.0"?>
<opencv_storage>
<stage9>
  <maxWeakCount>6</maxWeakCount>
  <stageThreshold>-1.5226674079895020e+00</stageThreshold>
  <weakClassifiers>
    <_>
      <internalNodes>
        0 -1 2706984 -1.5485627809539437e-03</internalNodes>
      <leafValues>
        2.9629629850387573e-01 -7.7806788682937622e-01</leafValues></_>
    <_>
      <internalNodes>
        0 -1 1207492 -6.6423117459635250e-06</internalNodes>
      <leafValues>
        9.8665960133075714e-02 -7.3761594295501709e-01</leafValues></_>
    <_>
      <internalNodes>
        0 -1 4066843 -7.3764622356975451e-06</internalNodes>
      <leafValues>
        3.0809873342514038e-01 -5.4018062353134155e-01</leafValues></_>
    <_>
      <internalNodes>
        0 -1 3907805 1.0889482218772173e-03</internalNodes>
      <leafValues>
        1.8569764494895935e-01 -9.1631346940994263e-01</leafValues></_>
    <_>
      <internalNodes>
        0 -1 3164081 4.5302044600248337e-04</internalNodes>
      <leafValues>
        -3.2624271512031555e-01 5.6488156318664551e-01</leafValues></_>
    <_>
      <internalNodes>
        0 -1 381258 6.4493287936784327e-05</internalNodes>
      <leafValues>
        2.4374863505363464e-01 -7.9993230104446411e-01</leafValues></_></weakClassifiers></stage9>
</opencv_storage>
