<?xml version="1.0"?>
<opencv_storage>
<stage12>
  <maxWeakCount>7</maxWeakCount>
  <stageThreshold>-1.3662286996841431e+00</stageThreshold>
  <weakClassifiers>
    <_>
      <internalNodes>
        0 -1 2964108 2.2227703593671322e-03</internalNodes>
      <leafValues>
        -7.5696200132369995e-01 6.0000002384185791e-01</leafValues></_>
    <_>
      <internalNodes>
        0 -1 2495961 1.1041988618671894e-03</internalNodes>
      <leafValues>
        -4.2581745982170105e-01 5.1746273040771484e-01</leafValues></_>
    <_>
      <internalNodes>
        0 -1 3566221 1.3920845231041312e-04</internalNodes>
      <leafValues>
        -6.5650147199630737e-01 2.9611566662788391e-01</leafValues></_>
    <_>
      <internalNodes>
        0 -1 100477 2.8299968107603490e-04</internalNodes>
      <leafValues>
        -7.0137798786163330e-01 2.1748939156532288e-01</leafValues></_>
    <_>
      <internalNodes>
        0 -1 350879 8.7655662355246022e-06</internalNodes>
      <leafValues>
        -5.6466078758239746e-01 2.6972711086273193e-01</leafValues></_>
    <_>
      <internalNodes>
        0 -1 1992634 1.1287818197160959e-03</internalNodes>
      <leafValues>
        -1.9782370328903198e-01 8.6722034215927124e-01</leafValues></_>
    <_>
      <internalNodes>
        0 -1 1398958 6.8649853346869349e-04</internalNodes>
      <leafValues>
        2.6486149430274963e-01 -7.5962066650390625e-01</leafValues></_></weakClassifiers></stage12>
</opencv_storage>
