<?xml version="1.0"?>
<opencv_storage>
<stage8>
  <maxWeakCount>5</maxWeakCount>
  <stageThreshold>-1.2599225044250488e+00</stageThreshold>
  <weakClassifiers>
    <_>
      <internalNodes>
        0 -1 9121 -1.3991987705230713e+00</internalNodes>
      <leafValues>
        3.8461539149284363e-01 -7.8125000000000000e-01</leafValues></_>
    <_>
      <internalNodes>
        0 -1 203930 -1.0146950080525130e-04</internalNodes>
      <leafValues>
        2.2704409062862396e-01 -6.8748319149017334e-01</leafValues></_>
    <_>
      <internalNodes>
        0 -1 3297229 1.4767085667699575e-04</internalNodes>
      <leafValues>
        -3.3301883935928345e-01 7.6129013299942017e-01</leafValues></_>
    <_>
      <internalNodes>
        0 -1 27309 3.0257937032729387e-04</internalNodes>
      <leafValues>
        -6.2306159734725952e-01 3.5952076315879822e-01</leafValues></_>
    <_>
      <internalNodes>
        0 -1 21975 -5.5916458368301392e-02</internalNodes>
      <leafValues>
        3.0241227149963379e-01 -7.3221850395202637e-01</leafValues></_></weakClassifiers></stage8>
</opencv_storage>
