<?xml version="1.0"?>
<opencv_storage>
<stage11>
  <maxWeakCount>6</maxWeakCount>
  <stageThreshold>-1.7091052532196045e+00</stageThreshold>
  <weakClassifiers>
    <_>
      <internalNodes>
        0 -1 2233819 2.6620477437973022e-03</internalNodes>
      <leafValues>
        -7.5857686996459961e-01 5.1515150070190430e-01</leafValues></_>
    <_>
      <internalNodes>
        0 -1 3489085 1.5737169887870550e-03</internalNodes>
      <leafValues>
        -4.2038512229919434e-01 5.2502882480621338e-01</leafValues></_>
    <_>
      <internalNodes>
        0 -1 1938827 -6.8017093326488975e-06</internalNodes>
      <leafValues>
        3.1196260452270508e-01 -5.6343811750411987e-01</leafValues></_>
    <_>
      <internalNodes>
        0 -1 3980234 3.3122365130111575e-04</internalNodes>
      <leafValues>
        1.9642685353755951e-01 -8.5328167676925659e-01</leafValues></_>
    <_>
      <internalNodes>
        0 -1 515310 -5.0093003665097058e-05</internalNodes>
      <leafValues>
        2.9438436031341553e-01 -6.5123766660690308e-01</leafValues></_>
    <_>
      <internalNodes>
        0 -1 89807 -2.9860461130738258e-02</internalNodes>
      <leafValues>
        3.7030717730522156e-01 -4.5751628279685974e-01</leafValues></_></weakClassifiers></stage11>
</opencv_storage>
