<?xml version="1.0"?>
<opencv_storage>
<stage13>
  <maxWeakCount>7</maxWeakCount>
  <stageThreshold>-1.5328395366668701e+00</stageThreshold>
  <weakClassifiers>
    <_>
      <internalNodes>
        0 -1 2704843 8.8209309615194798e-04</internalNodes>
      <leafValues>
        -7.5094342231750488e-01 6.8000000715255737e-01</leafValues></_>
    <_>
      <internalNodes>
        0 -1 1481530 1.7718566814437509e-03</internalNodes>
      <leafValues>
        -7.1851501706987619e-04 -8.3891457319259644e-01</leafValues></_>
    <_>
      <internalNodes>
        0 -1 4066874 -9.3252074293559417e-06</internalNodes>
      <leafValues>
        2.4383164942264557e-01 -5.7541441917419434e-01</leafValues></_>
    <_>
      <internalNodes>
        0 -1 310354 3.1810704967938364e-06</internalNodes>
      <leafValues>
        -4.6929022669792175e-01 3.9524775743484497e-01</leafValues></_>
    <_>
      <internalNodes>
        0 -1 429198 -1.0906439274549484e-04</internalNodes>
      <leafValues>
        -8.1972914934158325e-01 1.9574379920959473e-01</leafValues></_>
    <_>
      <internalNodes>
        0 -1 4035118 4.0322361201106105e-06</internalNodes>
      <leafValues>
        -6.8732208013534546e-01 2.0108129084110260e-01</leafValues></_>
    <_>
      <internalNodes>
        0 -1 11970 4.7468094271607697e-04</internalNodes>
      <leafValues>
        1.7870146036148071e-01 -8.0160927772521973e-01</leafValues></_></weakClassifiers></stage13>
</opencv_storage>
