<?xml version="1.0"?>
<opencv_storage>
<stage4>
  <maxWeakCount>5</maxWeakCount>
  <stageThreshold>-1.2036675214767456e+00</stageThreshold>
  <weakClassifiers>
    <_>
      <internalNodes>
        0 -1 313794 -1.2621561288833618e+00</internalNodes>
      <leafValues>
        7.0833331346511841e-01 -7.9533678293228149e-01</leafValues></_>
    <_>
      <internalNodes>
        0 -1 1306637 -1.2001915602013469e-03</internalNodes>
      <leafValues>
        -8.2021594047546387e-01 9.9549435079097748e-02</leafValues></_>
    <_>
      <internalNodes>
        0 -1 100860 -2.3969901667442173e-04</internalNodes>
      <leafValues>
        -9.3066853284835815e-01 2.1006923913955688e-01</leafValues></_>
    <_>
      <internalNodes>
        0 -1 102786 8.2821463001891971e-04</internalNodes>
      <leafValues>
        2.6358237862586975e-01 -9.0114629268646240e-01</leafValues></_>
    <_>
      <internalNodes>
        0 -1 204908 -1.0362783214077353e-03</internalNodes>
      <leafValues>
        -1. 1.8319688737392426e-01</leafValues></_></weakClassifiers></stage4>
</opencv_storage>
