<?xml version="1.0"?>
<opencv_storage>
<cascade>
  <stageType>BOOST</stageType>
  <featureType>HAAR</featureType>
  <height>30</height>
  <width>30</width>
  <stageParams>
    <boostType>GAB</boostType>
    <minHitRate>9.9500000476837158e-01</minHitRate>
    <maxFalseAlarm>5.0000000000000000e-01</maxFalseAlarm>
    <weightTrimRate>9.4999999999999996e-01</weightTrimRate>
    <maxDepth>1</maxDepth>
    <maxWeakCount>100</maxWeakCount></stageParams>
  <featureParams>
    <maxCatCount>0</maxCatCount>
    <featSize>1</featSize>
    <mode>ALL</mode></featureParams>
  <stageNum>3</stageNum>
  <stages>
    <!-- stage 0 -->
    <_>
      <maxWeakCount>2</maxWeakCount>
      <stageThreshold>0.</stageThreshold>
      <weakClassifiers>
        <_>
          <internalNodes>
            0 -1 6 1.5854087471961975e-01</internalNodes>
          <leafValues>
            -9.9335545301437378e-01 1.</leafValues></_>
        <_>
          <internalNodes>
            0 -1 0 9.5534980297088623e-01</internalNodes>
          <leafValues>
            -1. 1.</leafValues></_></weakClassifiers></_>
    <!-- stage 1 -->
    <_>
      <maxWeakCount>3</maxWeakCount>
      <stageThreshold>-1.0122756958007813e+00</stageThreshold>
      <weakClassifiers>
        <_>
          <internalNodes>
            0 -1 2 2.0623531937599182e-01</internalNodes>
          <leafValues>
            -9.8016530275344849e-01 8.4615385532379150e-01</leafValues></_>
        <_>
          <internalNodes>
            0 -1 3 -1.4412229880690575e-02</internalNodes>
          <leafValues>
            8.9335715770721436e-01 -9.3326467275619507e-01</leafValues></_>
        <_>
          <internalNodes>
            0 -1 5 1.5323475003242493e-01</internalNodes>
          <leafValues>
            -8.8551855087280273e-01 9.0115422010421753e-01</leafValues></_></weakClassifiers></_>
    <!-- stage 2 -->
    <_>
      <maxWeakCount>3</maxWeakCount>
      <stageThreshold>-9.8591476678848267e-01</stageThreshold>
      <weakClassifiers>
        <_>
          <internalNodes>
            0 -1 7 2.7383752167224884e-02</internalNodes>
          <leafValues>
            -9.7693574428558350e-01 1.</leafValues></_>
        <_>
          <internalNodes>
            0 -1 4 -7.1032196283340454e-02</internalNodes>
          <leafValues>
            9.3156266212463379e-01 -9.3173509836196899e-01</leafValues></_>
        <_>
          <internalNodes>
            0 -1 1 2.0545789599418640e-01</internalNodes>
          <leafValues>
            -8.1851428747177124e-01 9.2275607585906982e-01</leafValues></_></weakClassifiers></_></stages>
  <features>
    <_>
      <rects>
        <_>
          3 0 27 27 -1.</_>
        <_>
          12 9 9 9 9.</_></rects>
      <tilted>0</tilted></_>
    <_>
      <rects>
        <_>
          7 7 16 14 -1.</_>
        <_>
          11 7 8 14 2.</_></rects>
      <tilted>0</tilted></_>
    <_>
      <rects>
        <_>
          7 7 20 8 -1.</_>
        <_>
          12 7 10 8 2.</_></rects>
      <tilted>0</tilted></_>
    <_>
      <rects>
        <_>
          9 0 15 21 -1.</_>
        <_>
          14 7 5 7 9.</_></rects>
      <tilted>0</tilted></_>
    <_>
      <rects>
        <_>
          9 10 15 5 -1.</_>
        <_>
          14 10 5 5 3.</_></rects>
      <tilted>0</tilted></_>
    <_>
      <rects>
        <_>
          12 1 16 4 -1.</_>
        <_>
          16 5 8 4 2.</_></rects>
      <tilted>1</tilted></_>
    <_>
      <rects>
        <_>
          15 1 12 12 -1.</_>
        <_>
          18 4 6 12 2.</_></rects>
      <tilted>1</tilted></_>
    <_>
      <rects>
        <_>
          15 4 4 6 -1.</_>
        <_>
          15 6 4 2 3.</_></rects>
      <tilted>0</tilted></_></features></cascade>
</opencv_storage>
